<?xml version="1.0"?>
<opencv_storage>
<cascade>
  <stageType>BOOST</stageType>
  <featureType>HAAR</featureType>
  <height>40</height>
  <width>80</width>
  <stageParams>
    <boostType>GAB</boostType>
    <minHitRate>9.9900001287460327e-01</minHitRate>
    <maxFalseAlarm>5.0000000000000000e-01</maxFalseAlarm>
    <weightTrimRate>9.4999999999999996e-01</weightTrimRate>
    <maxDepth>1</maxDepth>
    <maxWeakCount>100</maxWeakCount></stageParams>
  <featureParams>
    <maxCatCount>0</maxCatCount>
    <featSize>1</featSize>
    <mode>ALL</mode></featureParams>
  <stageNum>20</stageNum>
  <stages>
    <!-- stage 0 -->
    <_>
      <maxWeakCount>1</maxWeakCount>
      <stageThreshold>9.7163122892379761e-01</stageThreshold>
      <weakClassifiers>
        <_>
          <internalNodes>
            0 -1 19 4.7719301655888557e-03</internalNodes>
          <leafValues>
            9.7163122892379761e-01 -1.</leafValues></_></weakClassifiers></_>
    <!-- stage 1 -->
    <_>
      <maxWeakCount>1</maxWeakCount>
      <stageThreshold>9.8571425676345825e-01</stageThreshold>
      <weakClassifiers>
        <_>
          <internalNodes>
            0 -1 10 -3.1822971999645233e-02</internalNodes>
          <leafValues>
            -1. 9.8571425676345825e-01</leafValues></_></weakClassifiers></_>
    <!-- stage 2 -->
    <_>
      <maxWeakCount>2</maxWeakCount>
      <stageThreshold>1.2131547182798386e-01</stageThreshold>
      <weakClassifiers>
        <_>
          <internalNodes>
            0 -1 9 -1.8816952407360077e-01</internalNodes>
          <leafValues>
            -7.1428573131561279e-01 9.8561149835586548e-01</leafValues></_>
        <_>
          <internalNodes>
            0 -1 15 -8.8697057217359543e-03</internalNodes>
          <leafValues>
            -8.6429601907730103e-01 9.8175466060638428e-01</leafValues></_></weakClassifiers></_>
    <!-- stage 3 -->
    <_>
      <maxWeakCount>1</maxWeakCount>
      <stageThreshold>9.8571425676345825e-01</stageThreshold>
      <weakClassifiers>
        <_>
          <internalNodes>
            0 -1 8 1.3543247245252132e-02</internalNodes>
          <leafValues>
            9.8571425676345825e-01 -1.</leafValues></_></weakClassifiers></_>
    <!-- stage 4 -->
    <_>
      <maxWeakCount>1</maxWeakCount>
      <stageThreshold>9.8571425676345825e-01</stageThreshold>
      <weakClassifiers>
        <_>
          <internalNodes>
            0 -1 22 -3.4822463989257812e-02</internalNodes>
          <leafValues>
            -1. 9.8571425676345825e-01</leafValues></_></weakClassifiers></_>
    <!-- stage 5 -->
    <_>
      <maxWeakCount>3</maxWeakCount>
      <stageThreshold>1.0765466690063477e+00</stageThreshold>
      <weakClassifiers>
        <_>
          <internalNodes>
            0 -1 5 -1.0983917862176895e-02</internalNodes>
          <leafValues>
            -6.6666668653488159e-01 9.7142857313156128e-01</leafValues></_>
        <_>
          <internalNodes>
            0 -1 23 -5.0549697130918503e-02</internalNodes>
          <leafValues>
            -8.9488196372985840e-01 9.6254807710647583e-01</leafValues></_>
        <_>
          <internalNodes>
            0 -1 14 -2.1169101819396019e-03</internalNodes>
          <leafValues>
            -7.6681989431381226e-01 1.</leafValues></_></weakClassifiers></_>
    <!-- stage 6 -->
    <_>
      <maxWeakCount>1</maxWeakCount>
      <stageThreshold>1.</stageThreshold>
      <weakClassifiers>
        <_>
          <internalNodes>
            0 -1 13 2.2069398313760757e-02</internalNodes>
          <leafValues>
            1. -1.</leafValues></_></weakClassifiers></_>
    <!-- stage 7 -->
    <_>
      <maxWeakCount>1</maxWeakCount>
      <stageThreshold>9.8571425676345825e-01</stageThreshold>
      <weakClassifiers>
        <_>
          <internalNodes>
            0 -1 3 1.9513051956892014e-02</internalNodes>
          <leafValues>
            9.8571425676345825e-01 -1.</leafValues></_></weakClassifiers></_>
    <!-- stage 8 -->
    <_>
      <maxWeakCount>2</maxWeakCount>
      <stageThreshold>2.3229402303695679e-01</stageThreshold>
      <weakClassifiers>
        <_>
          <internalNodes>
            0 -1 18 -9.6005364321172237e-04</internalNodes>
          <leafValues>
            -7.5000000000000000e-01 1.</leafValues></_>
        <_>
          <internalNodes>
            0 -1 7 1.3867482542991638e-02</internalNodes>
          <leafValues>
            9.8229402303695679e-01 -1.</leafValues></_></weakClassifiers></_>
    <!-- stage 9 -->
    <_>
      <maxWeakCount>1</maxWeakCount>
      <stageThreshold>9.7163122892379761e-01</stageThreshold>
      <weakClassifiers>
        <_>
          <internalNodes>
            0 -1 4 1.8249246058985591e-03</internalNodes>
          <leafValues>
            9.7163122892379761e-01 -1.</leafValues></_></weakClassifiers></_>
    <!-- stage 10 -->
    <_>
      <maxWeakCount>1</maxWeakCount>
      <stageThreshold>9.5774650573730469e-01</stageThreshold>
      <weakClassifiers>
        <_>
          <internalNodes>
            0 -1 6 -6.9445706903934479e-03</internalNodes>
          <leafValues>
            -1. 9.5774650573730469e-01</leafValues></_></weakClassifiers></_>
    <!-- stage 11 -->
    <_>
      <maxWeakCount>1</maxWeakCount>
      <stageThreshold>1.</stageThreshold>
      <weakClassifiers>
        <_>
          <internalNodes>
            0 -1 0 4.4415234588086605e-03</internalNodes>
          <leafValues>
            1. -1.</leafValues></_></weakClassifiers></_>
    <!-- stage 12 -->
    <_>
      <maxWeakCount>1</maxWeakCount>
      <stageThreshold>9.8571425676345825e-01</stageThreshold>
      <weakClassifiers>
        <_>
          <internalNodes>
            0 -1 17 -1.1910433880984783e-02</internalNodes>
          <leafValues>
            -1. 9.8571425676345825e-01</leafValues></_></weakClassifiers></_>
    <!-- stage 13 -->
    <_>
      <maxWeakCount>1</maxWeakCount>
      <stageThreshold>9.7163122892379761e-01</stageThreshold>
      <weakClassifiers>
        <_>
          <internalNodes>
            0 -1 11 2.2511589340865612e-03</internalNodes>
          <leafValues>
            9.7163122892379761e-01 -1.</leafValues></_></weakClassifiers></_>
    <!-- stage 14 -->
    <_>
      <maxWeakCount>1</maxWeakCount>
      <stageThreshold>9.8571425676345825e-01</stageThreshold>
      <weakClassifiers>
        <_>
          <internalNodes>
            0 -1 20 -1.5221178531646729e-02</internalNodes>
          <leafValues>
            -1. 9.8571425676345825e-01</leafValues></_></weakClassifiers></_>
    <!-- stage 15 -->
    <_>
      <maxWeakCount>3</maxWeakCount>
      <stageThreshold>9.9189472198486328e-01</stageThreshold>
      <weakClassifiers>
        <_>
          <internalNodes>
            0 -1 12 -4.4255917891860008e-03</internalNodes>
          <leafValues>
            -6.6666668653488159e-01 9.7142857313156128e-01</leafValues></_>
        <_>
          <internalNodes>
            0 -1 24 -2.3042378015816212e-03</internalNodes>
          <leafValues>
            -8.9488196372985840e-01 9.6254807710647583e-01</leafValues></_>
        <_>
          <internalNodes>
            0 -1 25 -4.5351097360253334e-03</internalNodes>
          <leafValues>
            -9.4208192825317383e-01 9.4267833232879639e-01</leafValues></_></weakClassifiers></_>
    <!-- stage 16 -->
    <_>
      <maxWeakCount>2</maxWeakCount>
      <stageThreshold>3.1332325935363770e-01</stageThreshold>
      <weakClassifiers>
        <_>
          <internalNodes>
            0 -1 26 -1.5502662863582373e-03</internalNodes>
          <leafValues>
            -5.0000000000000000e-01 9.8550724983215332e-01</leafValues></_>
        <_>
          <internalNodes>
            0 -1 16 1.3463173527270555e-03</internalNodes>
          <leafValues>
            -6.7218399047851562e-01 9.7750234603881836e-01</leafValues></_></weakClassifiers></_>
    <!-- stage 17 -->
    <_>
      <maxWeakCount>1</maxWeakCount>
      <stageThreshold>1.</stageThreshold>
      <weakClassifiers>
        <_>
          <internalNodes>
            0 -1 2 5.1321901381015778e-02</internalNodes>
          <leafValues>
            1. -1.</leafValues></_></weakClassifiers></_>
    <!-- stage 18 -->
    <_>
      <maxWeakCount>1</maxWeakCount>
      <stageThreshold>1.</stageThreshold>
      <weakClassifiers>
        <_>
          <internalNodes>
            0 -1 1 1.4581594616174698e-02</internalNodes>
          <leafValues>
            1. -1.</leafValues></_></weakClassifiers></_>
    <!-- stage 19 -->
    <_>
      <maxWeakCount>1</maxWeakCount>
      <stageThreshold>9.7163122892379761e-01</stageThreshold>
      <weakClassifiers>
        <_>
          <internalNodes>
            0 -1 21 -6.7449687048792839e-03</internalNodes>
          <leafValues>
            -1. 9.7163122892379761e-01</leafValues></_></weakClassifiers></_></stages>
  <features>
    <_>
      <rects>
        <_>
          0 0 1 28 -1.</_>
        <_>
          0 7 1 14 2.</_></rects>
      <tilted>0</tilted></_>
    <_>
      <rects>
        <_>
          0 0 6 9 -1.</_>
        <_>
          2 3 2 3 9.</_></rects>
      <tilted>0</tilted></_>
    <_>
      <rects>
        <_>
          0 0 6 39 -1.</_>
        <_>
          2 13 2 13 9.</_></rects>
      <tilted>0</tilted></_>
    <_>
      <rects>
        <_>
          1 16 45 3 -1.</_>
        <_>
          16 17 15 1 9.</_></rects>
      <tilted>0</tilted></_>
    <_>
      <rects>
        <_>
          2 0 3 5 -1.</_>
        <_>
          3 0 1 5 3.</_></rects>
      <tilted>0</tilted></_>
    <_>
      <rects>
        <_>
          2 4 12 19 -1.</_>
        <_>
          5 4 6 19 2.</_></rects>
      <tilted>0</tilted></_>
    <_>
      <rects>
        <_>
          3 7 4 28 -1.</_>
        <_>
          3 7 2 14 2.</_>
        <_>
          5 21 2 14 2.</_></rects>
      <tilted>0</tilted></_>
    <_>
      <rects>
        <_>
          6 0 6 15 -1.</_>
        <_>
          8 5 2 5 9.</_></rects>
      <tilted>0</tilted></_>
    <_>
      <rects>
        <_>
          8 18 3 18 -1.</_>
        <_>
          9 24 1 6 9.</_></rects>
      <tilted>0</tilted></_>
    <_>
      <rects>
        <_>
          9 0 30 40 -1.</_>
        <_>
          19 0 10 40 3.</_></rects>
      <tilted>0</tilted></_>
    <_>
      <rects>
        <_>
          11 14 54 6 -1.</_>
        <_>
          38 14 27 6 2.</_></rects>
      <tilted>0</tilted></_>
    <_>
      <rects>
        <_>
          19 38 8 2 -1.</_>
        <_>
          23 38 4 2 2.</_></rects>
      <tilted>0</tilted></_>
    <_>
      <rects>
        <_>
          22 13 28 13 -1.</_>
        <_>
          29 13 14 13 2.</_></rects>
      <tilted>0</tilted></_>
    <_>
      <rects>
        <_>
          23 18 20 2 -1.</_>
        <_>
          23 18 10 2 2.</_></rects>
      <tilted>1</tilted></_>
    <_>
      <rects>
        <_>
          26 10 21 18 -1.</_>
        <_>
          33 16 7 6 9.</_></rects>
      <tilted>0</tilted></_>
    <_>
      <rects>
        <_>
          27 0 16 12 -1.</_>
        <_>
          24 3 16 6 2.</_></rects>
      <tilted>1</tilted></_>
    <_>
      <rects>
        <_>
          28 8 28 24 -1.</_>
        <_>
          28 16 28 8 3.</_></rects>
      <tilted>0</tilted></_>
    <_>
      <rects>
        <_>
          28 10 18 18 -1.</_>
        <_>
          34 16 6 6 9.</_></rects>
      <tilted>0</tilted></_>
    <_>
      <rects>
        <_>
          28 13 30 16 -1.</_>
        <_>
          28 17 30 8 2.</_></rects>
      <tilted>0</tilted></_>
    <_>
      <rects>
        <_>
          29 14 20 9 -1.</_>
        <_>
          34 14 10 9 2.</_></rects>
      <tilted>0</tilted></_>
    <_>
      <rects>
        <_>
          34 12 18 18 -1.</_>
        <_>
          40 18 6 6 9.</_></rects>
      <tilted>0</tilted></_>
    <_>
      <rects>
        <_>
          55 36 20 4 -1.</_>
        <_>
          60 36 10 4 2.</_></rects>
      <tilted>0</tilted></_>
    <_>
      <rects>
        <_>
          59 0 18 12 -1.</_>
        <_>
          68 0 9 12 2.</_></rects>
      <tilted>0</tilted></_>
    <_>
      <rects>
        <_>
          62 0 18 40 -1.</_>
        <_>
          71 0 9 40 2.</_></rects>
      <tilted>0</tilted></_>
    <_>
      <rects>
        <_>
          66 1 4 18 -1.</_>
        <_>
          67 1 2 18 2.</_></rects>
      <tilted>0</tilted></_>
    <_>
      <rects>
        <_>
          75 0 4 40 -1.</_>
        <_>
          75 0 2 20 2.</_>
        <_>
          77 20 2 20 2.</_></rects>
      <tilted>0</tilted></_>
    <_>
      <rects>
        <_>
          76 6 4 12 -1.</_>
        <_>
          77 6 2 12 2.</_></rects>
      <tilted>0</tilted></_></features></cascade>
</opencv_storage>
